digraph Tree {
node [shape=box, style="filled, rounded", color="black", fontname=helvetica] ;
edge [fontname=helvetica] ;
0 [label="longest_meaningful <= 0.304\ngini = 0.097\nsamples = 42088\nvalue = [39943, 2145]\nclass = No attack", fillcolor="#e58139f1"] ;
1 [label="longest_chars <= 0.017\ngini = 0.452\nsamples = 6055\nvalue = [3964, 2091]\nclass = No attack", fillcolor="#e5813978"] ;
0 -> 1 [labeldistance=2.5, labelangle=45, headlabel="True"] ;
2 [label="gini = 0.0\nsamples = 2740\nvalue = [2740, 0]\nclass = No attack", fillcolor="#e58139ff"] ;
1 -> 2 ;
3 [label="longest_chars <= 0.732\ngini = 0.466\nsamples = 3315\nvalue = [1224, 2091]\nclass = Attack", fillcolor="#399de56a"] ;
1 -> 3 ;
4 [label="entropy <= 0.368\ngini = 0.1\nsamples = 2020\nvalue = [107, 1913]\nclass = Attack", fillcolor="#399de5f1"] ;
3 -> 4 ;
5 [label="gini = 0.0\nsamples = 1744\nvalue = [0, 1744]\nclass = Attack", fillcolor="#399de5ff"] ;
4 -> 5 ;
6 [label="chars <= 0.613\ngini = 0.475\nsamples = 276\nvalue = [107, 169]\nclass = Attack", fillcolor="#399de55e"] ;
4 -> 6 ;
7 [label="longest_chars <= 0.464\ngini = 0.274\nsamples = 128\nvalue = [107, 21]\nclass = No attack", fillcolor="#e58139cd"] ;
6 -> 7 ;
8 [label="gini = 0.0\nsamples = 19\nvalue = [0, 19]\nclass = Attack", fillcolor="#399de5ff"] ;
7 -> 8 ;
9 [label="entropy <= 0.393\ngini = 0.036\nsamples = 109\nvalue = [107, 2]\nclass = No attack", fillcolor="#e58139fa"] ;
7 -> 9 ;
10 [label="gini = 0.0\nsamples = 70\nvalue = [70, 0]\nclass = No attack", fillcolor="#e58139ff"] ;
9 -> 10 ;
11 [label="gini = 0.097\nsamples = 39\nvalue = [37, 2]\nclass = No attack", fillcolor="#e58139f1"] ;
9 -> 11 ;
12 [label="gini = 0.0\nsamples = 148\nvalue = [0, 148]\nclass = Attack", fillcolor="#399de5ff"] ;
6 -> 12 ;
13 [label="longest_meaningful <= 0.268\ngini = 0.237\nsamples = 1295\nvalue = [1117, 178]\nclass = No attack", fillcolor="#e58139d6"] ;
3 -> 13 ;
14 [label="longest_meaningful <= 0.155\ngini = 0.128\nsamples = 1021\nvalue = [951, 70]\nclass = No attack", fillcolor="#e58139ec"] ;
13 -> 14 ;
15 [label="gini = 0.0\nsamples = 26\nvalue = [0, 26]\nclass = Attack", fillcolor="#399de5ff"] ;
14 -> 15 ;
16 [label="digits <= 0.056\ngini = 0.085\nsamples = 995\nvalue = [951, 44]\nclass = No attack", fillcolor="#e58139f3"] ;
14 -> 16 ;
17 [label="gini = 0.0\nsamples = 766\nvalue = [766, 0]\nclass = No attack", fillcolor="#e58139ff"] ;
16 -> 17 ;
18 [label="longest_digits <= 0.236\ngini = 0.31\nsamples = 229\nvalue = [185, 44]\nclass = No attack", fillcolor="#e58139c2"] ;
16 -> 18 ;
19 [label="gini = 0.0\nsamples = 43\nvalue = [0, 43]\nclass = Attack", fillcolor="#399de5ff"] ;
18 -> 19 ;
20 [label="gini = 0.011\nsamples = 186\nvalue = [185, 1]\nclass = No attack", fillcolor="#e58139fe"] ;
18 -> 20 ;
21 [label="entropy <= 0.381\ngini = 0.478\nsamples = 274\nvalue = [166, 108]\nclass = No attack", fillcolor="#e5813959"] ;
13 -> 21 ;
22 [label="longest_chars <= 0.95\ngini = 0.33\nsamples = 197\nvalue = [156, 41]\nclass = No attack", fillcolor="#e58139bc"] ;
21 -> 22 ;
23 [label="gini = 0.0\nsamples = 12\nvalue = [0, 12]\nclass = Attack", fillcolor="#399de5ff"] ;
22 -> 23 ;
24 [label="entropy <= 0.34\ngini = 0.264\nsamples = 185\nvalue = [156, 29]\nclass = No attack", fillcolor="#e58139d0"] ;
22 -> 24 ;
25 [label="gini = 0.0\nsamples = 56\nvalue = [56, 0]\nclass = No attack", fillcolor="#e58139ff"] ;
24 -> 25 ;
26 [label="gini = 0.349\nsamples = 129\nvalue = [100, 29]\nclass = No attack", fillcolor="#e58139b5"] ;
24 -> 26 ;
27 [label="longest_chars <= 0.929\ngini = 0.226\nsamples = 77\nvalue = [10, 67]\nclass = Attack", fillcolor="#399de5d9"] ;
21 -> 27 ;
28 [label="gini = 0.0\nsamples = 35\nvalue = [0, 35]\nclass = Attack", fillcolor="#399de5ff"] ;
27 -> 28 ;
29 [label="gini = 0.363\nsamples = 42\nvalue = [10, 32]\nclass = Attack", fillcolor="#399de5af"] ;
27 -> 29 ;
30 [label="longest_chars <= 0.449\ngini = 0.003\nsamples = 36033\nvalue = [35979, 54]\nclass = No attack", fillcolor="#e58139ff"] ;
0 -> 30 [labeldistance=2.5, labelangle=-45, headlabel="False"] ;
31 [label="longest_meaningful <= 0.348\ngini = 0.16\nsamples = 148\nvalue = [135, 13]\nclass = No attack", fillcolor="#e58139e6"] ;
30 -> 31 ;
32 [label="gini = 0.0\nsamples = 135\nvalue = [135, 0]\nclass = No attack", fillcolor="#e58139ff"] ;
31 -> 32 ;
33 [label="gini = 0.0\nsamples = 13\nvalue = [0, 13]\nclass = Attack", fillcolor="#399de5ff"] ;
31 -> 33 ;
34 [label="longest_digits <= 0.097\ngini = 0.002\nsamples = 35885\nvalue = [35844, 41]\nclass = No attack", fillcolor="#e58139ff"] ;
30 -> 34 ;
35 [label="longest_meaningful <= 0.437\ngini = 0.001\nsamples = 33791\nvalue = [33777, 14]\nclass = No attack", fillcolor="#e58139ff"] ;
34 -> 35 ;
36 [label="longest_meaningful <= 0.42\ngini = 0.005\nsamples = 4051\nvalue = [4040, 11]\nclass = No attack", fillcolor="#e58139fe"] ;
35 -> 36 ;
37 [label="gini = 0.0\nsamples = 3555\nvalue = [3555, 0]\nclass = No attack", fillcolor="#e58139ff"] ;
36 -> 37 ;
38 [label="entropy <= 0.34\ngini = 0.043\nsamples = 496\nvalue = [485, 11]\nclass = No attack", fillcolor="#e58139f9"] ;
36 -> 38 ;
39 [label="gini = 0.0\nsamples = 179\nvalue = [179, 0]\nclass = No attack", fillcolor="#e58139ff"] ;
38 -> 39 ;
40 [label="entropy <= 0.381\ngini = 0.067\nsamples = 317\nvalue = [306, 11]\nclass = No attack", fillcolor="#e58139f6"] ;
38 -> 40 ;
41 [label="gini = 0.078\nsamples = 198\nvalue = [190, 8]\nclass = No attack", fillcolor="#e58139f4"] ;
40 -> 41 ;
42 [label="gini = 0.049\nsamples = 119\nvalue = [116, 3]\nclass = No attack", fillcolor="#e58139f8"] ;
40 -> 42 ;
43 [label="longest_meaningful <= 0.577\ngini = 0.0\nsamples = 29740\nvalue = [29737, 3]\nclass = No attack", fillcolor="#e58139ff"] ;
35 -> 43 ;
44 [label="longest_meaningful <= 0.567\ngini = 0.001\nsamples = 8889\nvalue = [8886, 3]\nclass = No attack", fillcolor="#e58139ff"] ;
43 -> 44 ;
45 [label="gini = 0.0\nsamples = 7579\nvalue = [7579, 0]\nclass = No attack", fillcolor="#e58139ff"] ;
44 -> 45 ;
46 [label="entropy <= 0.381\ngini = 0.005\nsamples = 1310\nvalue = [1307, 3]\nclass = No attack", fillcolor="#e58139fe"] ;
44 -> 46 ;
47 [label="gini = 0.002\nsamples = 947\nvalue = [946, 1]\nclass = No attack", fillcolor="#e58139ff"] ;
46 -> 47 ;
48 [label="gini = 0.011\nsamples = 363\nvalue = [361, 2]\nclass = No attack", fillcolor="#e58139fe"] ;
46 -> 48 ;
49 [label="gini = 0.0\nsamples = 20851\nvalue = [20851, 0]\nclass = No attack", fillcolor="#e58139ff"] ;
43 -> 49 ;
50 [label="digits <= 0.171\ngini = 0.025\nsamples = 2094\nvalue = [2067, 27]\nclass = No attack", fillcolor="#e58139fc"] ;
34 -> 50 ;
51 [label="longest_meaningful <= 0.679\ngini = 0.16\nsamples = 217\nvalue = [198, 19]\nclass = No attack", fillcolor="#e58139e7"] ;
50 -> 51 ;
52 [label="longest_meaningful <= 0.472\ngini = 0.172\nsamples = 21\nvalue = [2, 19]\nclass = Attack", fillcolor="#399de5e4"] ;
51 -> 52 ;
53 [label="gini = 0.0\nsamples = 15\nvalue = [0, 15]\nclass = Attack", fillcolor="#399de5ff"] ;
52 -> 53 ;
54 [label="gini = 0.444\nsamples = 6\nvalue = [2, 4]\nclass = Attack", fillcolor="#399de57f"] ;
52 -> 54 ;
55 [label="gini = 0.0\nsamples = 196\nvalue = [196, 0]\nclass = No attack", fillcolor="#e58139ff"] ;
51 -> 55 ;
56 [label="entropy <= 0.375\ngini = 0.008\nsamples = 1877\nvalue = [1869, 8]\nclass = No attack", fillcolor="#e58139fe"] ;
50 -> 56 ;
57 [label="symbols <= 0.056\ngini = 0.113\nsamples = 133\nvalue = [125, 8]\nclass = No attack", fillcolor="#e58139ef"] ;
56 -> 57 ;
58 [label="longest_digits <= 0.236\ngini = 0.182\nsamples = 79\nvalue = [71, 8]\nclass = No attack", fillcolor="#e58139e2"] ;
57 -> 58 ;
59 [label="gini = 0.0\nsamples = 4\nvalue = [0, 4]\nclass = Attack", fillcolor="#399de5ff"] ;
58 -> 59 ;
60 [label="gini = 0.101\nsamples = 75\nvalue = [71, 4]\nclass = No attack", fillcolor="#e58139f1"] ;
58 -> 60 ;
61 [label="gini = 0.0\nsamples = 54\nvalue = [54, 0]\nclass = No attack", fillcolor="#e58139ff"] ;
57 -> 61 ;
62 [label="gini = 0.0\nsamples = 1744\nvalue = [1744, 0]\nclass = No attack", fillcolor="#e58139ff"] ;
56 -> 62 ;
}