digraph Tree {
node [shape=box, style="filled, rounded", color="black", fontname=helvetica] ;
edge [fontname=helvetica] ;
0 [label="5_longest_meaningful <= 0.304\ngini = 0.363\nsamples = 52989\nvalue = [40378, 12611]\nclass = No attack", fillcolor="#e58139af"] ;
1 [label="3_longest_letters <= 0.012\ngini = 0.432\nsamples = 18042\nvalue = [5694, 12348]\nclass = Attack", fillcolor="#399de589"] ;
0 -> 1 [labeldistance=2.5, labelangle=45, headlabel="True"] ;
2 [label="gini = 0.0\nsamples = 4463\nvalue = [4463, 0]\nclass = No attack", fillcolor="#e58139ff"] ;
1 -> 2 ;
3 [label="3_longest_letters <= 0.739\ngini = 0.165\nsamples = 13579\nvalue = [1231, 12348]\nclass = Attack", fillcolor="#399de5e6"] ;
1 -> 3 ;
4 [label="2_entropy <= 0.433\ngini = 0.028\nsamples = 11494\nvalue = [165, 11329]\nclass = Attack", fillcolor="#399de5fb"] ;
3 -> 4 ;
5 [label="2_entropy <= 0.368\ngini = 0.009\nsamples = 11379\nvalue = [50, 11329]\nclass = Attack", fillcolor="#399de5fe"] ;
4 -> 5 ;
6 [label="gini = 0.0\nsamples = 10381\nvalue = [0, 10381]\nclass = Attack", fillcolor="#399de5ff"] ;
5 -> 6 ;
7 [label="0_letters <= 0.613\ngini = 0.095\nsamples = 998\nvalue = [50, 948]\nclass = Attack", fillcolor="#399de5f2"] ;
5 -> 7 ;
8 [label="3_longest_letters <= 0.464\ngini = 0.476\nsamples = 128\nvalue = [50, 78]\nclass = Attack", fillcolor="#399de55c"] ;
7 -> 8 ;
9 [label="gini = 0.0\nsamples = 78\nvalue = [0, 78]\nclass = Attack", fillcolor="#399de5ff"] ;
8 -> 9 ;
10 [label="gini = 0.0\nsamples = 50\nvalue = [50, 0]\nclass = No attack", fillcolor="#e58139ff"] ;
8 -> 10 ;
11 [label="gini = 0.0\nsamples = 870\nvalue = [0, 870]\nclass = Attack", fillcolor="#399de5ff"] ;
7 -> 11 ;
12 [label="gini = 0.0\nsamples = 115\nvalue = [115, 0]\nclass = No attack", fillcolor="#e58139ff"] ;
4 -> 12 ;
13 [label="2_entropy <= 0.433\ngini = 0.5\nsamples = 2085\nvalue = [1066, 1019]\nclass = No attack", fillcolor="#e581390b"] ;
3 -> 13 ;
14 [label="2_entropy <= 0.211\ngini = 0.485\nsamples = 1735\nvalue = [716, 1019]\nclass = Attack", fillcolor="#399de54c"] ;
13 -> 14 ;
15 [label="2_entropy <= 0.194\ngini = 0.011\nsamples = 179\nvalue = [178, 1]\nclass = No attack", fillcolor="#e58139fe"] ;
14 -> 15 ;
16 [label="2_entropy <= 0.176\ngini = 0.057\nsamples = 34\nvalue = [33, 1]\nclass = No attack", fillcolor="#e58139f7"] ;
15 -> 16 ;
17 [label="gini = 0.0\nsamples = 33\nvalue = [33, 0]\nclass = No attack", fillcolor="#e58139ff"] ;
16 -> 17 ;
18 [label="gini = 0.0\nsamples = 1\nvalue = [0, 1]\nclass = Attack", fillcolor="#399de5ff"] ;
16 -> 18 ;
19 [label="gini = 0.0\nsamples = 145\nvalue = [145, 0]\nclass = No attack", fillcolor="#e58139ff"] ;
15 -> 19 ;
20 [label="0_letters <= 0.95\ngini = 0.452\nsamples = 1556\nvalue = [538, 1018]\nclass = Attack", fillcolor="#399de578"] ;
14 -> 20 ;
21 [label="4_longest_number <= 0.236\ngini = 0.071\nsamples = 461\nvalue = [17, 444]\nclass = Attack", fillcolor="#399de5f5"] ;
20 -> 21 ;
22 [label="gini = 0.0\nsamples = 440\nvalue = [0, 440]\nclass = Attack", fillcolor="#399de5ff"] ;
21 -> 22 ;
23 [label="2_entropy <= 0.344\ngini = 0.308\nsamples = 21\nvalue = [17, 4]\nclass = No attack", fillcolor="#e58139c3"] ;
21 -> 23 ;
24 [label="gini = 0.0\nsamples = 1\nvalue = [0, 1]\nclass = Attack", fillcolor="#399de5ff"] ;
23 -> 24 ;
25 [label="gini = 0.255\nsamples = 20\nvalue = [17, 3]\nclass = No attack", fillcolor="#e58139d2"] ;
23 -> 25 ;
26 [label="5_longest_meaningful <= 0.236\ngini = 0.499\nsamples = 1095\nvalue = [521, 574]\nclass = Attack", fillcolor="#399de518"] ;
20 -> 26 ;
27 [label="5_longest_meaningful <= 0.155\ngini = 0.175\nsamples = 309\nvalue = [279, 30]\nclass = No attack", fillcolor="#e58139e4"] ;
26 -> 27 ;
28 [label="gini = 0.0\nsamples = 30\nvalue = [0, 30]\nclass = Attack", fillcolor="#399de5ff"] ;
27 -> 28 ;
29 [label="gini = 0.0\nsamples = 279\nvalue = [279, 0]\nclass = No attack", fillcolor="#e58139ff"] ;
27 -> 29 ;
30 [label="2_entropy <= 0.388\ngini = 0.426\nsamples = 786\nvalue = [242, 544]\nclass = Attack", fillcolor="#399de58e"] ;
26 -> 30 ;
31 [label="2_entropy <= 0.352\ngini = 0.493\nsamples = 500\nvalue = [221, 279]\nclass = Attack", fillcolor="#399de535"] ;
30 -> 31 ;
32 [label="5_longest_meaningful <= 0.268\ngini = 0.344\nsamples = 303\nvalue = [67, 236]\nclass = Attack", fillcolor="#399de5b7"] ;
31 -> 32 ;
33 [label="2_entropy <= 0.328\ngini = 0.1\nsamples = 247\nvalue = [13, 234]\nclass = Attack", fillcolor="#399de5f1"] ;
32 -> 33 ;
34 [label="gini = 0.0\nsamples = 141\nvalue = [0, 141]\nclass = Attack", fillcolor="#399de5ff"] ;
33 -> 34 ;
35 [label="gini = 0.215\nsamples = 106\nvalue = [13, 93]\nclass = Attack", fillcolor="#399de5db"] ;
33 -> 35 ;
36 [label="2_entropy <= 0.312\ngini = 0.069\nsamples = 56\nvalue = [54, 2]\nclass = No attack", fillcolor="#e58139f6"] ;
32 -> 36 ;
37 [label="gini = 0.0\nsamples = 24\nvalue = [24, 0]\nclass = No attack", fillcolor="#e58139ff"] ;
36 -> 37 ;
38 [label="gini = 0.117\nsamples = 32\nvalue = [30, 2]\nclass = No attack", fillcolor="#e58139ee"] ;
36 -> 38 ;
39 [label="5_longest_meaningful <= 0.268\ngini = 0.341\nsamples = 197\nvalue = [154, 43]\nclass = No attack", fillcolor="#e58139b8"] ;
31 -> 39 ;
40 [label="gini = 0.159\nsamples = 92\nvalue = [84, 8]\nclass = No attack", fillcolor="#e58139e7"] ;
39 -> 40 ;
41 [label="gini = 0.444\nsamples = 105\nvalue = [70, 35]\nclass = No attack", fillcolor="#e581397f"] ;
39 -> 41 ;
42 [label="gini = 0.136\nsamples = 286\nvalue = [21, 265]\nclass = Attack", fillcolor="#399de5eb"] ;
30 -> 42 ;
43 [label="gini = 0.0\nsamples = 350\nvalue = [350, 0]\nclass = No attack", fillcolor="#e58139ff"] ;
13 -> 43 ;
44 [label="5_longest_meaningful <= 0.437\ngini = 0.015\nsamples = 34947\nvalue = [34684, 263]\nclass = No attack", fillcolor="#e58139fd"] ;
0 -> 44 [labeldistance=2.5, labelangle=-45, headlabel="False"] ;
45 [label="4_longest_number <= 0.097\ngini = 0.087\nsamples = 4437\nvalue = [4235, 202]\nclass = No attack", fillcolor="#e58139f3"] ;
44 -> 45 ;
46 [label="5_longest_meaningful <= 0.425\ngini = 0.022\nsamples = 3495\nvalue = [3456, 39]\nclass = No attack", fillcolor="#e58139fc"] ;
45 -> 46 ;
47 [label="5_longest_meaningful <= 0.369\ngini = 0.008\nsamples = 3092\nvalue = [3080, 12]\nclass = No attack", fillcolor="#e58139fe"] ;
46 -> 47 ;
48 [label="gini = 0.0\nsamples = 2064\nvalue = [2064, 0]\nclass = No attack", fillcolor="#e58139ff"] ;
47 -> 48 ;
49 [label="5_longest_meaningful <= 0.382\ngini = 0.023\nsamples = 1028\nvalue = [1016, 12]\nclass = No attack", fillcolor="#e58139fc"] ;
47 -> 49 ;
50 [label="2_entropy <= 0.291\ngini = 0.145\nsamples = 153\nvalue = [141, 12]\nclass = No attack", fillcolor="#e58139e9"] ;
49 -> 50 ;
51 [label="gini = 0.0\nsamples = 2\nvalue = [0, 2]\nclass = Attack", fillcolor="#399de5ff"] ;
50 -> 51 ;
52 [label="2_entropy <= 0.359\ngini = 0.124\nsamples = 151\nvalue = [141, 10]\nclass = No attack", fillcolor="#e58139ed"] ;
50 -> 52 ;
53 [label="2_entropy <= 0.328\ngini = 0.198\nsamples = 90\nvalue = [80, 10]\nclass = No attack", fillcolor="#e58139df"] ;
52 -> 53 ;
54 [label="2_entropy <= 0.307\ngini = 0.111\nsamples = 85\nvalue = [80, 5]\nclass = No attack", fillcolor="#e58139ef"] ;
53 -> 54 ;
55 [label="gini = 0.17\nsamples = 32\nvalue = [29, 3]\nclass = No attack", fillcolor="#e58139e5"] ;
54 -> 55 ;
56 [label="gini = 0.073\nsamples = 53\nvalue = [51, 2]\nclass = No attack", fillcolor="#e58139f5"] ;
54 -> 56 ;
57 [label="gini = 0.0\nsamples = 5\nvalue = [0, 5]\nclass = Attack", fillcolor="#399de5ff"] ;
53 -> 57 ;
58 [label="gini = 0.0\nsamples = 61\nvalue = [61, 0]\nclass = No attack", fillcolor="#e58139ff"] ;
52 -> 58 ;
59 [label="gini = 0.0\nsamples = 875\nvalue = [875, 0]\nclass = No attack", fillcolor="#e58139ff"] ;
49 -> 59 ;
60 [label="2_entropy <= 0.34\ngini = 0.125\nsamples = 403\nvalue = [376, 27]\nclass = No attack", fillcolor="#e58139ed"] ;
46 -> 60 ;
61 [label="gini = 0.0\nsamples = 106\nvalue = [106, 0]\nclass = No attack", fillcolor="#e58139ff"] ;
60 -> 61 ;
62 [label="2_entropy <= 0.381\ngini = 0.165\nsamples = 297\nvalue = [270, 27]\nclass = No attack", fillcolor="#e58139e6"] ;
60 -> 62 ;
63 [label="gini = 0.117\nsamples = 128\nvalue = [120, 8]\nclass = No attack", fillcolor="#e58139ee"] ;
62 -> 63 ;
64 [label="gini = 0.2\nsamples = 169\nvalue = [150, 19]\nclass = No attack", fillcolor="#e58139df"] ;
62 -> 64 ;
65 [label="2_entropy <= 0.416\ngini = 0.286\nsamples = 942\nvalue = [779, 163]\nclass = No attack", fillcolor="#e58139ca"] ;
45 -> 65 ;
66 [label="2_entropy <= 0.336\ngini = 0.461\nsamples = 255\nvalue = [92, 163]\nclass = Attack", fillcolor="#399de56f"] ;
65 -> 66 ;
67 [label="0_letters <= 0.708\ngini = 0.328\nsamples = 116\nvalue = [92, 24]\nclass = No attack", fillcolor="#e58139bc"] ;
66 -> 67 ;
68 [label="0_letters <= 0.646\ngini = 0.241\nsamples = 107\nvalue = [92, 15]\nclass = No attack", fillcolor="#e58139d5"] ;
67 -> 68 ;
69 [label="gini = 0.0\nsamples = 8\nvalue = [0, 8]\nclass = Attack", fillcolor="#399de5ff"] ;
68 -> 69 ;
70 [label="2_entropy <= 0.317\ngini = 0.131\nsamples = 99\nvalue = [92, 7]\nclass = No attack", fillcolor="#e58139ec"] ;
68 -> 70 ;
71 [label="gini = 0.0\nsamples = 62\nvalue = [62, 0]\nclass = No attack", fillcolor="#e58139ff"] ;
70 -> 71 ;
72 [label="1_numbers <= 0.278\ngini = 0.307\nsamples = 37\nvalue = [30, 7]\nclass = No attack", fillcolor="#e58139c4"] ;
70 -> 72 ;
73 [label="gini = 0.0\nsamples = 30\nvalue = [30, 0]\nclass = No attack", fillcolor="#e58139ff"] ;
72 -> 73 ;
74 [label="gini = 0.0\nsamples = 7\nvalue = [0, 7]\nclass = Attack", fillcolor="#399de5ff"] ;
72 -> 74 ;
75 [label="gini = 0.0\nsamples = 9\nvalue = [0, 9]\nclass = Attack", fillcolor="#399de5ff"] ;
67 -> 75 ;
76 [label="gini = 0.0\nsamples = 139\nvalue = [0, 139]\nclass = Attack", fillcolor="#399de5ff"] ;
66 -> 76 ;
77 [label="gini = 0.0\nsamples = 687\nvalue = [687, 0]\nclass = No attack", fillcolor="#e58139ff"] ;
65 -> 77 ;
78 [label="5_longest_meaningful <= 0.517\ngini = 0.004\nsamples = 30510\nvalue = [30449, 61]\nclass = No attack", fillcolor="#e58139fe"] ;
44 -> 78 ;
79 [label="2_entropy <= 0.316\ngini = 0.018\nsamples = 6624\nvalue = [6564, 60]\nclass = No attack", fillcolor="#e58139fd"] ;
78 -> 79 ;
80 [label="2_entropy <= 0.312\ngini = 0.066\nsamples = 1706\nvalue = [1648, 58]\nclass = No attack", fillcolor="#e58139f6"] ;
79 -> 80 ;
81 [label="2_entropy <= 0.267\ngini = 0.033\nsamples = 1568\nvalue = [1542, 26]\nclass = No attack", fillcolor="#e58139fb"] ;
80 -> 81 ;
82 [label="2_entropy <= 0.238\ngini = 0.005\nsamples = 794\nvalue = [792, 2]\nclass = No attack", fillcolor="#e58139fe"] ;
81 -> 82 ;
83 [label="gini = 0.0\nsamples = 564\nvalue = [564, 0]\nclass = No attack", fillcolor="#e58139ff"] ;
82 -> 83 ;
84 [label="2_entropy <= 0.245\ngini = 0.017\nsamples = 230\nvalue = [228, 2]\nclass = No attack", fillcolor="#e58139fd"] ;
82 -> 84 ;
85 [label="gini = 0.0\nsamples = 2\nvalue = [0, 2]\nclass = Attack", fillcolor="#399de5ff"] ;
84 -> 85 ;
86 [label="gini = 0.0\nsamples = 228\nvalue = [228, 0]\nclass = No attack", fillcolor="#e58139ff"] ;
84 -> 86 ;
87 [label="2_entropy <= 0.27\ngini = 0.06\nsamples = 774\nvalue = [750, 24]\nclass = No attack", fillcolor="#e58139f7"] ;
81 -> 87 ;
88 [label="gini = 0.489\nsamples = 40\nvalue = [23, 17]\nclass = No attack", fillcolor="#e5813943"] ;
87 -> 88 ;
89 [label="2_entropy <= 0.281\ngini = 0.019\nsamples = 734\nvalue = [727, 7]\nclass = No attack", fillcolor="#e58139fd"] ;
87 -> 89 ;
90 [label="2_entropy <= 0.277\ngini = 0.182\nsamples = 69\nvalue = [62, 7]\nclass = No attack", fillcolor="#e58139e2"] ;
89 -> 90 ;
91 [label="gini = 0.0\nsamples = 62\nvalue = [62, 0]\nclass = No attack", fillcolor="#e58139ff"] ;
90 -> 91 ;
92 [label="gini = 0.0\nsamples = 7\nvalue = [0, 7]\nclass = Attack", fillcolor="#399de5ff"] ;
90 -> 92 ;
93 [label="gini = 0.0\nsamples = 665\nvalue = [665, 0]\nclass = No attack", fillcolor="#e58139ff"] ;
89 -> 93 ;
94 [label="0_letters <= 0.938\ngini = 0.356\nsamples = 138\nvalue = [106, 32]\nclass = No attack", fillcolor="#e58139b2"] ;
80 -> 94 ;
95 [label="gini = 0.0\nsamples = 30\nvalue = [30, 0]\nclass = No attack", fillcolor="#e58139ff"] ;
94 -> 95 ;
96 [label="gini = 0.417\nsamples = 108\nvalue = [76, 32]\nclass = No attack", fillcolor="#e5813994"] ;
94 -> 96 ;
97 [label="2_entropy <= 0.359\ngini = 0.001\nsamples = 4918\nvalue = [4916, 2]\nclass = No attack", fillcolor="#e58139ff"] ;
79 -> 97 ;
98 [label="0_letters <= 0.819\ngini = 0.008\nsamples = 507\nvalue = [505, 2]\nclass = No attack", fillcolor="#e58139fe"] ;
97 -> 98 ;
99 [label="gini = 0.0\nsamples = 2\nvalue = [0, 2]\nclass = Attack", fillcolor="#399de5ff"] ;
98 -> 99 ;
100 [label="gini = 0.0\nsamples = 505\nvalue = [505, 0]\nclass = No attack", fillcolor="#e58139ff"] ;
98 -> 100 ;
101 [label="gini = 0.0\nsamples = 4411\nvalue = [4411, 0]\nclass = No attack", fillcolor="#e58139ff"] ;
97 -> 101 ;
102 [label="1_numbers <= 0.138\ngini = 0.0\nsamples = 23886\nvalue = [23885, 1]\nclass = No attack", fillcolor="#e58139ff"] ;
78 -> 102 ;
103 [label="gini = 0.0\nsamples = 22865\nvalue = [22865, 0]\nclass = No attack", fillcolor="#e58139ff"] ;
102 -> 103 ;
104 [label="5_longest_meaningful <= 0.586\ngini = 0.002\nsamples = 1021\nvalue = [1020, 1]\nclass = No attack", fillcolor="#e58139ff"] ;
102 -> 104 ;
105 [label="gini = 0.0\nsamples = 1\nvalue = [0, 1]\nclass = Attack", fillcolor="#399de5ff"] ;
104 -> 105 ;
106 [label="gini = 0.0\nsamples = 1020\nvalue = [1020, 0]\nclass = No attack", fillcolor="#e58139ff"] ;
104 -> 106 ;
}